<?xml version="1.0"?>
<opencv_storage>
<stage5>
  <maxWeakCount>45</maxWeakCount>
  <stageThreshold>-6.8968915939331055e-01</stageThreshold>
  <weakClassifiers>
    <_>
      <internalNodes>
        0 -1 6629 2.1022681146860123e-02</internalNodes>
      <leafValues>
        3.2375577092170715e-01 8.2345324754714966e-01</leafValues></_>
    <_>
      <internalNodes>
        0 -1 75166 1.7802592366933823e-02</internalNodes>
      <leafValues>
        3.2729178201407194e-03 9.3929415941238403e-01</leafValues></_>
    <_>
      <internalNodes>
        0 -1 53134 9.0758502483367920e-02</internalNodes>
      <leafValues>
        -1.1294390261173248e-01 6.7368954420089722e-01</leafValues></_>
    <_>
      <internalNodes>
        0 -1 77659 5.4324267694028094e-05</internalNodes>
      <leafValues>
        2.3422957956790924e-01 -4.0873679518699646e-01</leafValues></_>
    <_>
      <internalNodes>
        0 -1 77659 -1.4938050298951566e-04</internalNodes>
      <leafValues>
        -4.7565892338752747e-01 2.3411817848682404e-01</leafValues></_>
    <_>
      <internalNodes>
        0 -1 34324 -1.8777473596855998e-03</internalNodes>
      <leafValues>
        -3.9080542325973511e-01 1.6855882108211517e-01</leafValues></_>
    <_>
      <internalNodes>
        0 -1 45373 -1.5789228677749634e-01</internalNodes>
      <leafValues>
        6.8927550315856934e-01 -1.2373872846364975e-01</leafValues></_>
    <_>
      <internalNodes>
        0 -1 7603 6.3831806182861328e-02</internalNodes>
      <leafValues>
        -3.2979797571897507e-02 9.0092819929122925e-01</leafValues></_>
    <_>
      <internalNodes>
        0 -1 39926 2.6576858945190907e-03</internalNodes>
      <leafValues>
        1.1582095921039581e-01 -3.8847568631172180e-01</leafValues></_>
    <_>
      <internalNodes>
        0 -1 6607 -7.9506486654281616e-02</internalNodes>
      <leafValues>
        -5.1332455873489380e-01 8.7888985872268677e-02</leafValues></_>
    <_>
      <internalNodes>
        0 -1 78409 -3.2695347908884287e-03</internalNodes>
      <leafValues>
        -3.2351166009902954e-01 1.3967765867710114e-01</leafValues></_>
    <_>
      <internalNodes>
        0 -1 78350 -6.5152682363986969e-03</internalNodes>
      <leafValues>
        -3.8620138168334961e-01 1.4391924440860748e-01</leafValues></_>
    <_>
      <internalNodes>
        0 -1 76649 8.4901010268367827e-05</internalNodes>
      <leafValues>
        1.5398097038269043e-01 -2.6772809028625488e-01</leafValues></_>
    <_>
      <internalNodes>
        0 -1 78316 -1.2010398786514997e-03</internalNodes>
      <leafValues>
        -2.9697480797767639e-01 1.2264028191566467e-01</leafValues></_>
    <_>
      <internalNodes>
        0 -1 61450 3.5012599546462297e-03</internalNodes>
      <leafValues>
        -1.0603079944849014e-01 3.5607150197029114e-01</leafValues></_>
    <_>
      <internalNodes>
        0 -1 57415 8.6286775767803192e-03</internalNodes>
      <leafValues>
        -8.7141521275043488e-02 4.4519916176795959e-01</leafValues></_>
    <_>
      <internalNodes>
        0 -1 39768 3.2359972596168518e-02</internalNodes>
      <leafValues>
        1.0168485343456268e-01 -4.4050982594490051e-01</leafValues></_>
    <_>
      <internalNodes>
        0 -1 78346 -2.2772112861275673e-03</internalNodes>
      <leafValues>
        -3.2534188032150269e-01 1.0925370454788208e-01</leafValues></_>
    <_>
      <internalNodes>
        0 -1 6385 5.0945137627422810e-04</internalNodes>
      <leafValues>
        1.0734621435403824e-01 -3.3414137363433838e-01</leafValues></_>
    <_>
      <internalNodes>
        0 -1 78330 3.7761051207780838e-03</internalNodes>
      <leafValues>
        6.2544509768486023e-02 -5.5541062355041504e-01</leafValues></_>
    <_>
      <internalNodes>
        0 -1 50885 4.3426444754004478e-03</internalNodes>
      <leafValues>
        -1.3354948163032532e-01 2.5997027754783630e-01</leafValues></_>
    <_>
      <internalNodes>
        0 -1 40055 -4.9940552562475204e-03</internalNodes>
      <leafValues>
        -3.3796611428260803e-01 1.0902851074934006e-01</leafValues></_>
    <_>
      <internalNodes>
        0 -1 43546 1.9542051013559103e-03</internalNodes>
      <leafValues>
        -1.2202993035316467e-01 2.6770207285881042e-01</leafValues></_>
    <_>
      <internalNodes>
        0 -1 78265 1.6396716237068176e-03</internalNodes>
      <leafValues>
        8.8372804224491119e-02 -3.5579439997673035e-01</leafValues></_>
    <_>
      <internalNodes>
        0 -1 65677 1.9418462179601192e-03</internalNodes>
      <leafValues>
        -1.0311783850193024e-01 3.0720213055610657e-01</leafValues></_>
    <_>
      <internalNodes>
        0 -1 6418 -3.3302134834229946e-03</internalNodes>
      <leafValues>
        -2.6922586560249329e-01 1.1935939639806747e-01</leafValues></_>
    <_>
      <internalNodes>
        0 -1 264 1.7138302326202393e-02</internalNodes>
      <leafValues>
        5.0450615584850311e-02 -6.0937005281448364e-01</leafValues></_>
    <_>
      <internalNodes>
        0 -1 60023 9.8209194839000702e-03</internalNodes>
      <leafValues>
        -1.3671407103538513e-01 2.3870880901813507e-01</leafValues></_>
    <_>
      <internalNodes>
        0 -1 46796 -2.1099127829074860e-02</internalNodes>
      <leafValues>
        2.8176403045654297e-01 -1.3195689022541046e-01</leafValues></_>
    <_>
      <internalNodes>
        0 -1 47621 7.1417493745684624e-03</internalNodes>
      <leafValues>
        -1.0093373805284500e-01 3.1986525654792786e-01</leafValues></_>
    <_>
      <internalNodes>
        0 -1 75124 6.0150696663185954e-04</internalNodes>
      <leafValues>
        1.3350409269332886e-01 -2.4490068852901459e-01</leafValues></_>
    <_>
      <internalNodes>
        0 -1 77618 -7.2521464899182320e-03</internalNodes>
      <leafValues>
        -4.1664269566535950e-01 7.7348768711090088e-02</leafValues></_>
    <_>
      <internalNodes>
        0 -1 55012 -1.4138937694951892e-04</internalNodes>
      <leafValues>
        -2.2572202980518341e-01 1.3730752468109131e-01</leafValues></_>
    <_>
      <internalNodes>
        0 -1 71270 -1.5069076325744390e-03</internalNodes>
      <leafValues>
        -2.4625077843666077e-01 1.1602578312158585e-01</leafValues></_>
    <_>
      <internalNodes>
        0 -1 58558 -9.1592824901454151e-05</internalNodes>
      <leafValues>
        -2.1019272506237030e-01 1.4013487100601196e-01</leafValues></_>
    <_>
      <internalNodes>
        0 -1 63876 4.2833853513002396e-03</internalNodes>
      <leafValues>
        -1.0044512897729874e-01 3.2778024673461914e-01</leafValues></_>
    <_>
      <internalNodes>
        0 -1 6102 2.2016443312168121e-02</internalNodes>
      <leafValues>
        5.9524506330490112e-02 -5.0101745128631592e-01</leafValues></_>
    <_>
      <internalNodes>
        0 -1 560 -1.8348613381385803e-01</internalNodes>
      <leafValues>
        -4.6952524781227112e-01 5.6041296571493149e-02</leafValues></_>
    <_>
      <internalNodes>
        0 -1 71281 -5.7380250655114651e-03</internalNodes>
      <leafValues>
        -2.3890176415443420e-01 1.2655793130397797e-01</leafValues></_>
    <_>
      <internalNodes>
        0 -1 3326 -1.5846801688894629e-03</internalNodes>
      <leafValues>
        -2.9089015722274780e-01 1.0185781866312027e-01</leafValues></_>
    <_>
      <internalNodes>
        0 -1 36546 2.3670768737792969e-01</internalNodes>
      <leafValues>
        3.9464883506298065e-02 -7.3374360799789429e-01</leafValues></_>
    <_>
      <internalNodes>
        0 -1 64916 3.0655907467007637e-03</internalNodes>
      <leafValues>
        -1.2702240049839020e-01 2.5415787100791931e-01</leafValues></_>
    <_>
      <internalNodes>
        0 -1 49588 -1.7614468932151794e-02</internalNodes>
      <leafValues>
        3.5225969552993774e-01 -8.7735965847969055e-02</leafValues></_>
    <_>
      <internalNodes>
        0 -1 6061 -8.7540503591299057e-04</internalNodes>
      <leafValues>
        -3.3471581339836121e-01 8.1257097423076630e-02</leafValues></_>
    <_>
      <internalNodes>
        0 -1 25015 4.1435156017541885e-03</internalNodes>
      <leafValues>
        -1.3012616336345673e-01 2.1022559702396393e-01</leafValues></_></weakClassifiers></stage5>
</opencv_storage>
